34 32
33 -0.2704546 0.21817818 0.6523749 0.403475 -0.24174067 -0.019287016 0.16147695 0.22996978 -0.0041412357 -0.5830998 0.2168698 -0.29321238 -0.012176264 -0.16906284 -0.17613776 -0.3181046 -0.28551516 -0.063074365 -0.06854643 0.11738108 0.16578066 0.31054932 0.537277 -0.11617246 0.23029558 0.08128753 -0.24337308 0.045180704 -0.2081028 -0.13037795 0.066954486 0.042976737
0 -0.09119112 -0.42824373 0.04003469 -0.16732481 0.11489836 -0.24653213 0.25447008 -0.17633091 -0.34906116 0.3287053 -0.020782897 0.17359462 0.13677946 -0.24172169 -0.3021816 0.006808368 0.1286309 0.58192605 0.21890657 -0.1314729 -0.019688249 0.14029275 0.45135623 -0.22545338 0.11405254 -0.06270908 -0.20985842 0.32041243 0.3142782 -0.07030619 -0.09242403 -0.08411583
32 -0.0024117164 0.29838586 0.496085 0.4548264 -0.09840084 -0.037965134 0.33709383 0.23524687 -0.11975706 -0.7461334 0.24167436 -0.2587393 -0.07126215 0.14657557 -0.11051366 -0.46412042 -0.1558752 -0.15943894 0.21116216 0.11759769 -0.05414682 0.18150769 0.53473365 -0.038244776 0.046978217 0.0954954 -0.22839902 0.01351038 -0.083900906 -0.25215125 0.2262977 0.014077795
2 -0.16352828 -0.21418802 0.33548215 0.15860677 -0.08660087 0.029101847 0.17129138 0.30050358 0.12936914 -0.04636814 -0.2644889 0.21541628 -0.014816843 -0.07146665 0.0027343088 -0.020109197 -0.4099752 0.6470786 -0.13463005 0.39668542 0.1594898 0.040597122 0.3095238 -0.47958452 0.4398309 -0.13793314 0.45476583 -0.3562159 0.075461365 -0.06817905 -0.14469332 -0.021794785
1 0.1620229 0.059379075 0.42040733 -0.22764519 0.2565077 -0.39346316 0.16286252 0.120395005 0.16458894 0.400829 0.18271646 0.29376513 0.33546594 -0.32557562 -0.35716644 0.23687871 -0.114569485 0.5941511 0.0535479 0.23919505 0.06660965 -0.025105288 0.47300777 -0.5527488 0.1432418 0.0067422283 0.13357916 0.5118872 0.4148276 0.2566819 -0.17893945 0.26941508
31 -0.5144965 0.15149747 0.3049868 -0.13069226 -0.19886622 0.17237005 0.2627596 -0.18408167 0.23674484 0.074428596 -0.087586425 -0.36499602 -0.25045526 -0.15347652 0.33487806 -0.10437807 -0.4266876 -0.062359244 0.4004982 -0.08202401 0.22455254 -0.087844 0.40547186 0.017435597 0.36027125 -0.23442256 -0.14004663 -0.25756502 0.23721975 -0.42687944 -0.15819891 -0.17514513
3 0.18983333 -0.43075436 0.01318647 0.092114545 0.06699773 -0.30295247 0.050082315 0.3188461 -0.26711616 0.21758313 -0.29014754 0.24391125 0.28900105 0.15117455 -0.35297963 0.10153381 0.0063100667 0.75072956 -0.2747818 0.16628915 0.11993324 0.07390733 0.4879587 -0.5160607 0.3342212 0.088539205 0.057047646 0.09234842 -0.0006800965 -0.09736597 -0.23134792 -0.110418774
23 -0.26410842 0.11524228 0.56466043 0.5539516 -0.03443917 -0.042769067 0.41219825 -0.128851 0.19222628 -0.62868994 -0.15470438 -0.3337319 -0.11211157 0.12443303 0.4502943 -0.07815399 -0.35767043 -0.59110874 0.10594692 0.41797948 0.05970727 0.18080215 0.33073387 0.16485651 0.19826995 -0.23272008 -0.31119004 0.07663455 -0.36987132 -0.49581882 -0.32819486 -0.250598
6 -0.4444083 -0.8538347 -0.4294813 -0.13858677 -0.28213263 -0.47811565 0.5577386 -0.20939791 -0.6013811 0.60535485 0.6414489 0.51995504 -0.12619859 -0.2764405 -0.20405735 -0.087210044 0.23809366 0.35676536 0.10338008 -0.27062592 0.26318142 0.6187994 -0.37436077 0.19901364 -0.19246906 -0.13774846 -0.24177778 0.082119964 0.116012745 -0.12804468 -0.42509767 -0.38979748
8 0.20016454 0.058160394 0.25198233 0.23626055 0.18814225 -0.23639306 0.3625399 0.078436665 0.16258392 -0.049641356 0.34942243 -0.0859141 -0.111623205 -0.06059862 -0.16336635 -0.0022841922 -0.14902672 0.011458623 0.1420449 0.3600327 0.29497063 0.00069761655 0.26893994 -0.20829064 -0.0054804715 -0.13809027 0.2822063 -0.016072154 0.22248979 0.034217324 -0.093016416 0.14404929
13 0.076143496 -0.15818278 0.22977856 0.04667047 0.0021648346 -0.16152808 0.071592934 0.12716621 -0.040092878 0.17176555 0.00055803976 0.16985947 0.10628102 -0.09362486 -0.08247318 0.18564472 -0.004277143 0.3092006 -0.3143446 0.24850917 0.056768008 0.008044681 0.24467072 -0.3582277 0.14559233 0.022266911 0.1530011 0.102307186 -0.094276056 -0.010183697 -0.12813593 0.034701075
5 -0.5354957 -0.9022668 -0.40162575 -0.09067412 -0.1398689 -0.33724523 0.53441155 -0.43685633 -0.34389228 0.8040076 0.40866715 0.43691882 0.17629614 -0.46500894 -0.19348109 0.08353769 0.22539802 0.19861114 0.28798184 -0.47390747 0.19576819 0.6279429 -0.23321995 0.120881215 -0.2917227 -0.09730994 -0.39436817 0.34152728 0.10326332 0.007911696 -0.37194175 -0.21305783
29 -0.27017128 0.315804 0.6461134 0.70527375 -0.30220866 -0.034292795 0.12150248 0.029104525 0.34036136 -0.39366534 0.41444027 -0.45096076 0.055689827 -0.2841657 0.12427834 0.027221568 -0.4051963 -0.63791996 -0.2847828 0.16983172 0.30655757 0.46272704 0.11943676 0.020373445 -0.102371655 0.08670253 -0.2905691 0.066576 -0.7720864 -0.057602238 -0.045928344 -0.17624123
27 -0.26514357 0.121750526 0.47094694 0.35509524 0.011012317 0.2027798 0.4500068 0.07184912 0.4352492 0.05861624 -0.09938046 -0.16472092 -0.113943286 0.15364616 0.48835495 0.048003517 -0.4165292 -0.11999949 0.06411099 -0.10675097 -0.13856459 0.02713579 0.49069443 -0.19757713 0.20278789 -0.23532273 -0.15977177 -0.12409002 -0.34654638 -0.5088683 -0.11021332 -0.3192568
30 0.07006818 0.13061869 0.49380895 0.154552 0.075928316 -0.061217144 0.035158377 0.27231202 0.07401881 -0.5169072 0.02516313 0.023965817 0.03842147 -0.21193084 -0.10151684 -0.23892997 -0.2909635 0.30578774 0.22889301 0.43639022 0.029371694 0.19820763 0.117537044 -0.12940705 0.104067184 -0.0039090225 0.32171863 -0.013067618 0.27285156 0.22948055 0.17289326 0.124059275
7 0.04209513 -0.3604313 0.20906462 -0.034845445 0.005832229 -0.17879635 0.031927302 0.16271655 -0.10177457 0.3313638 -0.1855846 0.287686 0.22398925 -0.10002703 -0.038264874 0.22730945 -0.006176796 0.60901076 -0.3889711 0.23671672 -0.035342425 -0.00898236 0.27980348 -0.49341404 0.18451385 0.007451048 0.2295379 0.12086875 -0.1447071 -0.063301206 -0.24633248 -0.045308203
10 -0.32246894 -0.73258346 -0.39273736 -0.26983163 -0.1869743 -0.41822758 0.45763555 -0.14710513 -0.59013265 0.4509912 0.36093977 0.48813644 -0.12043669 -0.17677979 -0.1989112 -0.22872275 0.2693491 0.49552652 0.33300126 -0.30209267 0.11699057 0.3364097 -0.15242384 0.21910171 -0.038968366 -0.11227754 -0.15691902 0.088244475 0.4489724 -0.18798636 -0.33053106 -0.23334728
4 -0.36129043 -0.7860809 -0.44089955 -0.10082061 -0.031195287 -0.23891297 0.48718604 -0.39539054 -0.2926058 0.6913895 0.052571774 0.4621588 0.19335432 -0.23124099 -0.092366986 -0.014358387 0.25622946 0.30714273 0.46786994 -0.52078164 -0.0025572837 0.3892253 -0.15046935 0.108673 -0.24227324 -0.1633711 -0.26767048 0.27977255 0.26036996 -0.048290763 -0.25132212 -0.16692303
24 -0.54837745 0.029704819 0.5294013 0.30880886 0.16160439 0.22822867 0.4787715 -0.73404783 0.1430629 -0.22049527 -0.2688461 -0.11441145 -0.27604508 0.022138359 0.69909406 0.21355312 -0.70617604 -0.24019262 0.5078638 0.03330138 0.102604106 -0.29162413 0.60042363 -0.14507388 0.37093177 -0.2602046 -0.25341403 -0.18529293 -0.22076508 -0.47869477 -0.0023860196 -0.2851042
25 -0.61101174 0.14505683 0.66245055 0.38527495 -0.06906004 0.47407135 0.32455134 -0.370082 0.43570542 -0.058160152 -0.22682996 -0.39460197 -0.110088244 -0.07997526 0.8472239 0.05119427 -0.5412826 -0.30441907 0.32621634 -0.3136894 -0.105956554 0.018871471 0.5899574 0.12687096 0.23006028 -0.17084642 -0.4661135 -0.0758591 -0.4601172 -0.63323975 -0.048171178 -0.46092445
28 -0.20604113 0.04475751 0.36699516 0.038458962 0.13822304 0.31083056 0.17756304 -0.15241472 0.043365628 -0.07951476 -0.030353514 -0.12781037 -0.24681947 0.09361791 0.103092365 -0.06572616 -0.39038134 0.1451218 0.053122185 -0.11224097 -0.045491997 -0.2544903 0.6302637 -0.31192613 0.31646472 -0.031108892 -0.07129784 -0.28805667 -0.092276156 -0.27884138 0.17584316 -0.043096155
19 -0.056655623 -0.078373596 0.29293376 -0.14150313 0.041417252 -0.22418498 0.038893327 0.1763838 -0.04652957 -0.028391972 0.010554469 0.05778631 0.120176606 -0.2692403 -0.15771393 -0.09970147 0.04343691 0.17268941 0.024197213 0.21292077 0.11744174 0.102230065 0.2699425 -0.024276609 0.19478482 -0.018311437 -0.09416612 0.35591137 0.35529643 -0.0068895374 -0.16429321 0.23424482
16 -0.53039056 -0.89393103 -0.44016778 -0.008657813 -0.30579898 -0.4264583 0.68874913 -0.34015533 -0.5594077 0.53919286 0.5717873 0.66537684 0.12642863 -0.38762045 -0.29328457 -0.2526751 0.2668081 0.46461666 0.5254062 -0.645694 0.00030775764 0.8679137 -0.44254163 0.23586808 -0.46998963 -0.03906074 -0.34609976 0.2270659 0.17825428 0.01949694 -0.17018795 -0.355925
26 -0.25512126 0.20101333 0.54698384 0.62578106 -0.14516349 -0.065373346 0.08038257 0.29962096 0.18606262 -0.8216 0.046136606 -0.4225455 0.20088373 -0.042371675 -0.07142618 -0.26562434 -0.08524695 -0.5939328 -0.40007558 0.37136665 -0.06698219 0.5076087 0.2595113 0.25368693 0.19531232 0.045034193 -0.44413716 0.34859532 -0.5779231 -0.12799239 -0.24719968 0.025704257
14 -0.11547625 0.32628548 0.44958454 0.3079463 -0.17101547 -0.014930644 0.14928228 0.1940951 0.12697394 -0.48339182 0.3552189 -0.3792149 -0.17687826 -0.14010541 -0.17756285 -0.26646292 -0.24347793 -0.26138073 0.09876233 0.19494598 0.31314498 0.17528473 0.29804787 -0.011280602 0.05747974 0.06311451 -0.102185495 -0.121974364 -0.01434823 -0.08304279 0.14182967 0.0699217
18 -0.16055238 0.43822134 0.514537 0.40707392 -0.16876437 0.017490175 0.22210337 0.18163206 0.123252854 -0.58203745 0.43918425 -0.4580195 -0.17084478 -0.15987119 -0.20467559 -0.3419338 -0.32487598 -0.32285336 0.10038797 0.178841 0.318203 0.25201154 0.36283582 -0.027554534 0.07869386 0.06210374 -0.12567697 -0.19039778 -0.022559132 -0.07607593 0.20421553 0.07994517
12 0.057222575 -0.45279345 0.030048816 0.003922305 -0.09855395 -0.25238064 0.05276212 0.065723434 -0.23671558 0.5459913 -0.1174421 0.3596536 0.3112377 -0.17729963 -0.14750536 0.32786354 0.06307857 0.6957518 -0.42110944 0.10025628 0.06882412 0.102912664 0.20598637 -0.44275323 0.17550215 0.06302851 0.18018311 0.17254277 -0.20349146 1.6336708e-05 -0.2643392 -0.1353608
20 -0.112689465 0.37989283 0.48079935 0.40917283 -0.24010232 -0.011035765 0.14602381 0.27886105 0.12070586 -0.6309462 0.3125587 -0.42064816 -0.20242955 -0.09931558 -0.17785735 -0.35274318 -0.24987085 -0.3484558 0.07476994 0.26223508 0.2793247 0.23625627 0.28356564 0.021224786 0.07547573 0.048848595 -0.122540236 -0.13293718 -0.060899638 -0.11247768 0.15208699 0.08596573
21 0.06507517 -0.45233133 0.13934763 -0.27106202 0.022875894 -0.4180668 -0.103371985 0.15155074 -0.30754983 0.22469547 -0.2725579 0.31633085 0.3530513 -0.2999416 -0.10045091 0.058263272 0.32634634 0.4862543 -0.09109369 0.28789124 0.061512433 0.08214049 0.19107741 -0.02672075 0.1502251 0.04317323 -0.02401248 0.56849194 0.385549 -0.016034285 -0.4269172 0.19512425
17 0.024026783 -0.4150643 0.11602987 -0.2843517 0.089627445 -0.32084614 -0.08668387 0.028065613 -0.31299096 0.28719574 -0.2045724 0.25225052 0.2816642 -0.2364415 -0.10683933 0.064447224 0.27185467 0.46463314 -0.0014981971 0.17612931 0.104962744 0.0188079 0.27380872 0.00056261884 0.1692954 0.046683654 -0.058383346 0.4814522 0.39385918 -0.04561548 -0.32972416 0.15736917
15 -0.115813114 0.42485505 0.5344656 0.35660636 -0.16561748 -0.03534868 0.18858264 0.17555122 0.1895599 -0.5188813 0.3548237 -0.42819294 -0.14579658 -0.14793815 -0.15440969 -0.2825577 -0.26498783 -0.35401917 0.09860155 0.20344627 0.29783064 0.18978176 0.3781238 0.006268143 0.10407338 0.0004868783 -0.17823584 -0.053442612 -0.024377447 -0.08704682 0.06231228 0.108489424
22 -0.08489158 0.43630096 0.53836006 0.3646083 -0.22937241 0.026908485 0.21236035 0.23582056 0.16739936 -0.5760012 0.38522106 -0.52045786 -0.24006587 -0.12486878 -0.16945492 -0.29480037 -0.30810976 -0.3700833 0.08785827 0.23084003 0.37078083 0.15894493 0.38632 0.0027409438 0.123965375 0.024885353 -0.093691684 -0.21322645 -0.05640903 -0.1456845 0.14723401 0.054598663
9 -0.030470606 0.14747553 0.29075125 0.25161368 0.08563198 0.025278188 0.23545577 0.20580877 0.24038298 0.0033195026 0.19529025 -0.033679754 -0.06902294 0.14631908 -0.16719142 0.07133427 -0.31374994 0.04453453 -0.32117 0.16766386 0.04531967 -0.06742751 0.42575666 -0.48382482 0.18750109 -0.029445598 0.02089931 -0.16497056 -0.31030822 -0.096148126 0.0121358605 0.0029524525
11 -0.093166344 -0.4038436 -0.1389853 -0.2918249 0.015651273 -0.24565858 0.10743642 -0.07546817 -0.30315623 0.41035828 -0.11118332 0.21379621 0.09830715 -0.17646103 -0.12472325 0.052572727 0.16350946 0.41876614 0.19072296 -0.03412156 0.1715082 -0.05483578 0.12294465 0.04741562 0.17448936 -0.038608905 -0.021119846 0.26805827 0.43385905 -0.016585067 -0.2763501 0.10555423
